digraph Tree {
node [shape=box, style="rounded", color="black", fontname=helvetica] ;
edge [fontname=helvetica] ;
0 [label="hitype_1.0 <= 0.5\nmse = 261.5\nsamples = 81223\nvalue = 66.1"] ;
1 [label="ms_5.0 <= 0.5\nmse = 261.6\nsamples = 29866\nvalue = 53.1"] ;
0 -> 1 [labeldistance=2.5, labelangle=45, headlabel="True"] ;
2 [label="esr_5.0 <= 0.5\nmse = 205.1\nsamples = 25810\nvalue = 55.4"] ;
1 -> 2 ;
3 [label="mse = 163.3\nsamples = 16521\nvalue = 52.0"] ;
2 -> 3 ;
4 [label="mse = 220.2\nsamples = 9289\nvalue = 61.6"] ;
2 -> 4 ;
5 [label="cause113_10.0 <= 0.5\nmse = 368.7\nsamples = 4056\nvalue = 38.3"] ;
1 -> 5 ;
6 [label="mse = 356.1\nsamples = 3306\nvalue = 41.5"] ;
5 -> 6 ;
7 [label="mse = 163.4\nsamples = 750\nvalue = 23.6"] ;
5 -> 7 ;
8 [label="ms_2.0 <= 0.5\nmse = 103.7\nsamples = 51357\nvalue = 73.7"] ;
0 -> 8 [labeldistance=2.5, labelangle=-45, headlabel="False"] ;
9 [label="esr_5.0 <= 0.5\nmse = 109.6\nsamples = 32731\nvalue = 71.4"] ;
8 -> 9 ;
10 [label="mse = 173.2\nsamples = 5721\nvalue = 65.5"] ;
9 -> 10 ;
11 [label="mse = 87.2\nsamples = 27010\nvalue = 72.6"] ;
9 -> 11 ;
12 [label="hosp_2.0 <= 0.5\nmse = 66.6\nsamples = 18626\nvalue = 77.9"] ;
8 -> 12 ;
13 [label="mse = 70.8\nsamples = 13574\nvalue = 76.9"] ;
12 -> 13 ;
14 [label="mse = 46.8\nsamples = 5052\nvalue = 80.4"] ;
12 -> 14 ;
}